<?xml version="1.0"?>
<opencv_storage>
<cascade>
  <stageType>BOOST</stageType>
  <featureType>HAAR</featureType>
  <height>24</height>
  <width>24</width>
  <stageParams>
    <boostType>GAB</boostType>
    <minHitRate>9.9500000476837158e-01</minHitRate>
    <maxFalseAlarm>5.0000000000000000e-01</maxFalseAlarm>
    <weightTrimRate>9.4999999999999996e-01</weightTrimRate>
    <maxDepth>1</maxDepth>
    <maxWeakCount>100</maxWeakCount></stageParams>
  <featureParams>
    <maxCatCount>0</maxCatCount>
    <featSize>1</featSize>
    <mode>BASIC</mode></featureParams>
  <stageNum>13</stageNum>
  <stages>
    <!-- stage 0 -->
    <_>
      <maxWeakCount>2</maxWeakCount>
      <stageThreshold>-2.9421642422676086e-01</stageThreshold>
      <weakClassifiers>
        <_>
          <internalNodes>
            0 -1 14 -2.2056316956877708e-03</internalNodes>
          <leafValues>
            9.3203884363174438e-01 -9.8969072103500366e-01</leafValues></_>
        <_>
          <internalNodes>
            0 -1 12 -4.2523443698883057e-03</internalNodes>
          <leafValues>
            6.9547426700592041e-01 -1.</leafValues></_></weakClassifiers></_>
    <!-- stage 1 -->
    <_>
      <maxWeakCount>2</maxWeakCount>
      <stageThreshold>-1.6903807222843170e-01</stageThreshold>
      <weakClassifiers>
        <_>
          <internalNodes>
            0 -1 3 3.3275857567787170e-02</internalNodes>
          <leafValues>
            -6.7592591047286987e-01 7.9347825050354004e-01</leafValues></_>
        <_>
          <internalNodes>
            0 -1 11 -4.1883625090122223e-03</internalNodes>
          <leafValues>
            -9.6251630783081055e-01 5.6498837471008301e-01</leafValues></_></weakClassifiers></_>
    <!-- stage 2 -->
    <_>
      <maxWeakCount>2</maxWeakCount>
      <stageThreshold>-1.9805884361267090e-01</stageThreshold>
      <weakClassifiers>
        <_>
          <internalNodes>
            0 -1 24 -2.5267589837312698e-02</internalNodes>
          <leafValues>
            7.6842105388641357e-01 -6.9523811340332031e-01</leafValues></_>
        <_>
          <internalNodes>
            0 -1 20 3.4011962270596996e-05</internalNodes>
          <leafValues>
            4.9717923998832703e-01 -1.</leafValues></_></weakClassifiers></_>
    <!-- stage 3 -->
    <_>
      <maxWeakCount>2</maxWeakCount>
      <stageThreshold>-7.0863835513591766e-02</stageThreshold>
      <weakClassifiers>
        <_>
          <internalNodes>
            0 -1 20 -1.5447336409124546e-05</internalNodes>
          <leafValues>
            -8.6206895112991333e-01 8.8832485675811768e-01</leafValues></_>
        <_>
          <internalNodes>
            0 -1 25 -7.3869470506906509e-03</internalNodes>
          <leafValues>
            7.9120510816574097e-01 -8.4018760919570923e-01</leafValues></_></weakClassifiers></_>
    <!-- stage 4 -->
    <_>
      <maxWeakCount>2</maxWeakCount>
      <stageThreshold>-3.6624109745025635e-01</stageThreshold>
      <weakClassifiers>
        <_>
          <internalNodes>
            0 -1 19 -1.3391966604103800e-05</internalNodes>
          <leafValues>
            -8.2822084426879883e-01 5.6962025165557861e-01</leafValues></_>
        <_>
          <internalNodes>
            0 -1 21 -1.3804967238684185e-05</internalNodes>
          <leafValues>
            -1. 4.6197977662086487e-01</leafValues></_></weakClassifiers></_>
    <!-- stage 5 -->
    <_>
      <maxWeakCount>1</maxWeakCount>
      <stageThreshold>5.9362548589706421e-01</stageThreshold>
      <weakClassifiers>
        <_>
          <internalNodes>
            0 -1 21 1.2045203220623080e-05</internalNodes>
          <leafValues>
            5.9362548589706421e-01 -1.</leafValues></_></weakClassifiers></_>
    <!-- stage 6 -->
    <_>
      <maxWeakCount>2</maxWeakCount>
      <stageThreshold>-3.5058596730232239e-01</stageThreshold>
      <weakClassifiers>
        <_>
          <internalNodes>
            0 -1 23 -4.5376971364021301e-02</internalNodes>
          <leafValues>
            6.2962961196899414e-01 -7.3913043737411499e-01</leafValues></_>
        <_>
          <internalNodes>
            0 -1 16 -1.5747153156553395e-05</internalNodes>
          <leafValues>
            -1. 3.8854447007179260e-01</leafValues></_></weakClassifiers></_>
    <!-- stage 7 -->
    <_>
      <maxWeakCount>3</maxWeakCount>
      <stageThreshold>-1.2681225538253784e+00</stageThreshold>
      <weakClassifiers>
        <_>
          <internalNodes>
            0 -1 13 -5.5102463811635971e-03</internalNodes>
          <leafValues>
            6.6812229156494141e-01 -8.9473682641983032e-01</leafValues></_>
        <_>
          <internalNodes>
            0 -1 22 2.6065965648740530e-03</internalNodes>
          <leafValues>
            -8.6681121587753296e-01 5.3349918127059937e-01</leafValues></_>
        <_>
          <internalNodes>
            0 -1 16 1.1943940080527682e-05</internalNodes>
          <leafValues>
            4.9342542886734009e-01 -9.9196249246597290e-01</leafValues></_></weakClassifiers></_>
    <!-- stage 8 -->
    <_>
      <maxWeakCount>4</maxWeakCount>
      <stageThreshold>-2.8089708089828491e-01</stageThreshold>
      <weakClassifiers>
        <_>
          <internalNodes>
            0 -1 27 -1.4026639983057976e-02</internalNodes>
          <leafValues>
            7.3958331346511841e-01 -6.8269228935241699e-01</leafValues></_>
        <_>
          <internalNodes>
            0 -1 15 -7.0748501457273960e-04</internalNodes>
          <leafValues>
            5.6932854652404785e-01 -7.7946788072586060e-01</leafValues></_>
        <_>
          <internalNodes>
            0 -1 18 5.7462225668132305e-03</internalNodes>
          <leafValues>
            -9.1369462013244629e-01 4.0883207321166992e-01</leafValues></_>
        <_>
          <internalNodes>
            0 -1 4 -2.2199075669050217e-02</internalNodes>
          <leafValues>
            -5.3961777687072754e-01 7.7243101596832275e-01</leafValues></_></weakClassifiers></_>
    <!-- stage 9 -->
    <_>
      <maxWeakCount>3</maxWeakCount>
      <stageThreshold>-1.0983966588973999e+00</stageThreshold>
      <weakClassifiers>
        <_>
          <internalNodes>
            0 -1 1 7.2771847248077393e-02</internalNodes>
          <leafValues>
            -5.9817349910736084e-01 7.2375690937042236e-01</leafValues></_>
        <_>
          <internalNodes>
            0 -1 7 -1.8377032876014709e-01</internalNodes>
          <leafValues>
            -8.8942718505859375e-01 4.2504286766052246e-01</leafValues></_>
        <_>
          <internalNodes>
            0 -1 17 -1.4518438838422298e-03</internalNodes>
          <leafValues>
            3.8920399546623230e-01 -1.</leafValues></_></weakClassifiers></_>
    <!-- stage 10 -->
    <_>
      <maxWeakCount>5</maxWeakCount>
      <stageThreshold>-1.2705879211425781e+00</stageThreshold>
      <weakClassifiers>
        <_>
          <internalNodes>
            0 -1 2 -2.6802104711532593e-01</internalNodes>
          <leafValues>
            -8.3749997615814209e-01 5.5833333730697632e-01</leafValues></_>
        <_>
          <internalNodes>
            0 -1 5 1.7692320048809052e-02</internalNodes>
          <leafValues>
            -7.0172423124313354e-01 5.3360688686370850e-01</leafValues></_>
        <_>
          <internalNodes>
            0 -1 9 -2.1924547036178410e-04</internalNodes>
          <leafValues>
            -9.6184051036834717e-01 3.6360403895378113e-01</leafValues></_>
        <_>
          <internalNodes>
            0 -1 26 -3.4654766321182251e-02</internalNodes>
          <leafValues>
            8.1461030244827271e-01 -4.8697695136070251e-01</leafValues></_>
        <_>
          <internalNodes>
            0 -1 10 1.6629310266580433e-05</internalNodes>
          <leafValues>
            3.9200916886329651e-01 -9.7944521903991699e-01</leafValues></_></weakClassifiers></_>
    <!-- stage 11 -->
    <_>
      <maxWeakCount>2</maxWeakCount>
      <stageThreshold>-3.2904237508773804e-01</stageThreshold>
      <weakClassifiers>
        <_>
          <internalNodes>
            0 -1 0 -1.4416182041168213e-01</internalNodes>
          <leafValues>
            -9.5714282989501953e-01 5.1538461446762085e-01</leafValues></_>
        <_>
          <internalNodes>
            0 -1 8 3.1424774788320065e-03</internalNodes>
          <leafValues>
            -6.3485729694366455e-01 6.2810045480728149e-01</leafValues></_></weakClassifiers></_>
    <!-- stage 12 -->
    <_>
      <maxWeakCount>2</maxWeakCount>
      <stageThreshold>-1.7133939266204834e-01</stageThreshold>
      <weakClassifiers>
        <_>
          <internalNodes>
            0 -1 6 3.2567292451858521e-02</internalNodes>
          <leafValues>
            -4.8387095332145691e-01 7.8947371244430542e-01</leafValues></_>
        <_>
          <internalNodes>
            0 -1 10 -6.3006642449181527e-05</internalNodes>
          <leafValues>
            -9.6081310510635376e-01 4.7848442196846008e-01</leafValues></_></weakClassifiers></_></stages>
  <features>
    <_>
      <rects>
        <_>
          0 1 24 3 -1.</_>
        <_>
          8 1 8 3 2.</_></rects>
      <tilted>0</tilted></_>
    <_>
      <rects>
        <_>
          0 3 8 21 -1.</_>
        <_>
          4 3 4 21 2.</_></rects>
      <tilted>0</tilted></_>
    <_>
      <rects>
        <_>
          0 7 12 14 -1.</_>
        <_>
          4 7 4 14 2.</_></rects>
      <tilted>0</tilted></_>
    <_>
      <rects>
        <_>
          0 8 6 11 -1.</_>
        <_>
          3 8 3 11 2.</_></rects>
      <tilted>0</tilted></_>
    <_>
      <rects>
        <_>
          1 1 21 1 -1.</_>
        <_>
          8 1 7 1 2.</_></rects>
      <tilted>0</tilted></_>
    <_>
      <rects>
        <_>
          3 0 21 6 -1.</_>
        <_>
          3 3 21 3 2.</_></rects>
      <tilted>0</tilted></_>
    <_>
      <rects>
        <_>
          6 0 17 6 -1.</_>
        <_>
          6 3 17 3 2.</_></rects>
      <tilted>0</tilted></_>
    <_>
      <rects>
        <_>
          8 0 4 24 -1.</_>
        <_>
          8 8 4 8 2.</_></rects>
      <tilted>0</tilted></_>
    <_>
      <rects>
        <_>
          8 7 1 6 -1.</_>
        <_>
          8 10 1 3 2.</_></rects>
      <tilted>0</tilted></_>
    <_>
      <rects>
        <_>
          9 10 2 2 -1.</_>
        <_>
          10 10 1 2 2.</_></rects>
      <tilted>0</tilted></_>
    <_>
      <rects>
        <_>
          9 11 2 1 -1.</_>
        <_>
          10 11 1 1 2.</_></rects>
      <tilted>0</tilted></_>
    <_>
      <rects>
        <_>
          9 11 3 1 -1.</_>
        <_>
          10 11 1 1 2.</_></rects>
      <tilted>0</tilted></_>
    <_>
      <rects>
        <_>
          9 11 4 1 -1.</_>
        <_>
          11 11 2 1 2.</_></rects>
      <tilted>0</tilted></_>
    <_>
      <rects>
        <_>
          10 10 4 2 -1.</_>
        <_>
          12 10 2 2 2.</_></rects>
      <tilted>0</tilted></_>
    <_>
      <rects>
        <_>
          10 11 2 1 -1.</_>
        <_>
          11 11 1 1 2.</_></rects>
      <tilted>0</tilted></_>
    <_>
      <rects>
        <_>
          11 5 2 7 -1.</_>
        <_>
          12 5 1 7 2.</_></rects>
      <tilted>0</tilted></_>
    <_>
      <rects>
        <_>
          11 11 2 1 -1.</_>
        <_>
          12 11 1 1 2.</_></rects>
      <tilted>0</tilted></_>
    <_>
      <rects>
        <_>
          11 11 3 1 -1.</_>
        <_>
          12 11 1 1 2.</_></rects>
      <tilted>0</tilted></_>
    <_>
      <rects>
        <_>
          12 9 6 6 -1.</_>
        <_>
          15 9 3 6 2.</_></rects>
      <tilted>0</tilted></_>
    <_>
      <rects>
        <_>
          12 10 2 1 -1.</_>
        <_>
          13 10 1 1 2.</_></rects>
      <tilted>0</tilted></_>
    <_>
      <rects>
        <_>
          12 10 2 2 -1.</_>
        <_>
          13 10 1 2 2.</_></rects>
      <tilted>0</tilted></_>
    <_>
      <rects>
        <_>
          12 11 2 1 -1.</_>
        <_>
          13 11 1 1 2.</_></rects>
      <tilted>0</tilted></_>
    <_>
      <rects>
        <_>
          14 9 4 5 -1.</_>
        <_>
          16 9 2 5 2.</_></rects>
      <tilted>0</tilted></_>
    <_>
      <rects>
        <_>
          16 0 8 23 -1.</_>
        <_>
          20 0 4 23 2.</_></rects>
      <tilted>0</tilted></_>
    <_>
      <rects>
        <_>
          18 9 6 10 -1.</_>
        <_>
          21 9 3 10 2.</_></rects>
      <tilted>0</tilted></_>
    <_>
      <rects>
        <_>
          18 11 6 4 -1.</_>
        <_>
          21 11 3 4 2.</_></rects>
      <tilted>0</tilted></_>
    <_>
      <rects>
        <_>
          18 11 6 6 -1.</_>
        <_>
          21 11 3 6 2.</_></rects>
      <tilted>0</tilted></_>
    <_>
      <rects>
        <_>
          18 12 6 5 -1.</_>
        <_>
          21 12 3 5 2.</_></rects>
      <tilted>0</tilted></_></features></cascade>
</opencv_storage>
